{
  "feature_names": [
    "volume",
    "atr",
    "ema20",
    "ema50",
    "ema200",
    "sma50",
    "rsi",
    "bb_upper",
    "bb_middle",
    "bb_lower",
    "bb_width",
    "bb_pct",
    "adx",
    "price_dist_ema20_atr",
    "price_dist_ema50_atr",
    "ema20_dist_ema50_atr",
    "range_5",
    "range_20",
    "range_5_atr",
    "range_20_atr",
    "body_pct",
    "upper_wick_pct",
    "lower_wick_pct",
    "vol3_change",
    "hour",
    "day_of_week",
    "london_session",
    "ny_session",
    "asian_session"
  ],
  "mean": [
    95.70531367299942,
    6.4047565192115385,
    4222.823897519345,
    4221.1120377177,
    4213.052223555011,
    4226.402075417386,
    49.434617160853996,
    4241.37446430124,
    4224.878649971215,
    4208.3828356411905,
    0.007838406922913635,
    0.484469821719794,
    27.04873500514655,
    0.08120152909633495,
    0.3622607519674566,
    0.28105922287112167,
    16.133304548071404,
    35.41499712147383,
    2.4715645984871064,
    5.452795967841538,
    0.5367333099071405,
    0.228496205271182,
    0.23246766386600667,
    -7.254804794084763e-05,
    11.457109959700633,
    2.90846286701209,
    0.37305699481865284,
    0.3316062176165803,
    0.37823834196891193
  ],
  "std": [
    196.47247196292162,
    3.8979082072575673,
    148.85442888184787,
    146.43081924465534,
    134.1016986836378,
    151.4527403662807,
    12.127394300010316,
    150.34718070464388,
    150.74537272411132,
    152.63145238356537,
    0.007167538741868561,
    0.33140546441327834,
    11.883885480629312,
    3.0482404871813684,
    5.049430675929505,
    3.6309743280439917,
    14.40868430028705,
    27.581887755168893,
    1.2653575293605177,
    2.4141994751216505,
    0.30630803565869835,
    0.2455987468438883,
    0.24845349738728828,
    0.0025011110731178003,
    6.930407193241407,
    2.030062716282635,
    0.483617073143131,
    0.4707903291855149,
    0.48494752152528875
  ],
  "layers": [
    {
      "weights": [
        [
          0.17667898535728455,
          -0.15809747576713562,
          -0.191289022564888,
          -0.15579310059547424,
          -0.16114294528961182,
          0.016087137162685394,
          -0.2479625791311264,
          -0.05485564097762108,
          0.02537333033978939,
          0.028430067002773285,
          -0.1567951738834381,
          0.09538547694683075,
          0.06606223434209824,
          0.017926180735230446,
          0.03543052077293396,
          0.016124455258250237,
          -0.02469783090054989,
          0.08614924550056458,
          0.20680055022239685,
          0.0915306955575943,
          0.2094859629869461,
          0.03658901900053024,
          -0.1522681564092636,
          0.078292615711689,
          0.05618425831198692,
          -0.24474914371967316,
          0.19976677000522614,
          0.06481441855430603,
          -0.05399492383003235,
          0.26465603709220886,
          -0.06004013493657112,
          0.05233760178089142,
          -0.1863579899072647,
          -0.16111522912979126,
          -0.04943811520934105,
          -0.21066413819789886,
          0.11558393388986588,
          -0.19498062133789062,
          0.022531617432832718,
          0.18076638877391815,
          -0.15400034189224243,
          -0.009800420142710209,
          0.16084884107112885,
          0.13134533166885376,
          -0.06998681277036667,
          0.20792487263679504,
          0.04695330187678337,
          -0.005221245810389519,
          0.033295888453722,
          0.13935281336307526,
          0.1879323571920395,
          0.08854459971189499,
          -0.13592050969600677,
          -0.016003519296646118,
          -0.17417819797992706,
          -0.14284588396549225,
          -0.17053234577178955,
          -0.18203365802764893,
          -0.12043441832065582,
          0.02027956023812294,
          -0.15117542445659637,
          -0.027786554768681526,
          -0.16995669901371002,
          0.15783505141735077
        ],
        [
          -0.0670594796538353,
          -0.0032737371511757374,
          0.21869438886642456,
          0.19186480343341827,
          0.14528591930866241,
          0.21865829825401306,
          0.050072260200977325,
          -0.08107156306505203,
          0.10226060450077057,
          0.07833004742860794,
          0.14040368795394897,
          -0.18442749977111816,
          0.24047443270683289,
          0.03978395834565163,
          -0.18501119315624237,
          0.24130162596702576,
          -0.24898670613765717,
          0.12582656741142273,
          0.11979413777589798,
          0.11621018499135971,
          -0.15536780655384064,
          -0.0898318663239479,
          0.18993568420410156,
          -0.0894264206290245,
          0.14527627825737,
          0.21623142063617706,
          0.1292351633310318,
          -0.05522775277495384,
          0.05542991682887077,
          0.1516055315732956,
          -0.018803510814905167,
          0.25798627734184265,
          -0.24218977987766266,
          0.30572986602783203,
          0.2032577097415924,
          -0.14794526994228363,
          -0.0327816940844059,
          -0.11932288110256195,
          -0.11205431818962097,
          -0.09743907302618027,
          0.1837322860956192,
          -0.022639326751232147,
          -0.022965403273701668,
          0.032070696353912354,
          0.24355630576610565,
          0.02256421186029911,
          0.03266514837741852,
          0.10963842272758484,
          -0.07783982157707214,
          0.08059901744127274,
          -0.1304348260164261,
          0.09615429490804672,
          0.23911674320697784,
          0.18414826691150665,
          0.14582806825637817,
          0.28365787863731384,
          -0.13832156360149384,
          0.10209523141384125,
          -0.14656025171279907,
          -0.0576903410255909,
          0.0775805115699768,
          -0.11611610651016235,
          0.20443376898765564,
          0.005895679816603661
        ],
        [
          0.0017342857317999005,
          -0.15695565938949585,
          0.04799545556306839,
          -0.23712600767612457,
          -4.925084067508578e-05,
          0.20597058534622192,
          -0.11336024850606918,
          -0.19694873690605164,
          0.0047257812693715096,
          -0.07407988607883453,
          0.23295818269252777,
          0.02703024446964264,
          0.03961755335330963,
          0.07038844376802444,
          -0.2258927822113037,
          0.07931827008724213,
          0.08589325100183487,
          -0.13874788582324982,
          -0.24660897254943848,
          -0.20396602153778076,
          -0.01261664368212223,
          0.1501915454864502,
          0.09400125592947006,
          0.06418738514184952,
          -0.28635793924331665,
          -0.04768548533320427,
          0.08118989318609238,
          0.18261238932609558,
          0.09833860397338867,
          0.20546536147594452,
          -0.1659233719110489,
          -0.15703356266021729,
          -0.042234715074300766,
          -0.21660755574703217,
          0.11751282960176468,
          0.10687597841024399,
          0.15947206318378448,
          -0.06161081790924072,
          0.09066450595855713,
          0.23801159858703613,
          0.03964864835143089,
          -0.04841963201761246,
          0.24293021857738495,
          -0.2174413651227951,
          -0.10931865870952606,
          -0.17966122925281525,
          0.22551816701889038,
          -0.03326960280537605,
          -0.16937607526779175,
          -0.1413993537425995,
          0.04752874746918678,
          0.26071682572364807,
          -0.07611468434333801,
          0.1012018695473671,
          0.149626225233078,
          0.015642479062080383,
          0.12195788323879242,
          0.12258043140172958,
          0.1570911705493927,
          0.1497465819120407,
          0.09437352418899536,
          0.11545372009277344,
          -0.07518543303012848,
          0.0523272380232811
        ],
        [
          0.05539114773273468,
          -0.0902542695403099,
          0.03887801244854927,
          0.15912780165672302,
          -0.2590683698654175,
          -0.017681986093521118,
          0.21530090272426605,
          -0.20739059150218964,
          -0.1487400233745575,
          0.21803781390190125,
          0.1090088039636612,
          -0.006202328018844128,
          -0.06336873769760132,
          -0.23565053939819336,
          0.1535654067993164,
          -0.06464515626430511,
          0.11372217535972595,
          -0.21755535900592804,
          0.07775522768497467,
          0.24371998012065887,
          0.12061396986246109,
          -0.04287570342421532,
          0.1930026262998581,
          0.16400255262851715,
          -0.18726636469364166,
          0.19976598024368286,
          -0.06858187168836594,
          -0.08026815950870514,
          -0.2826676666736603,
          -0.028556836768984795,
          -0.002484746277332306,
          -0.09584785997867584,
          -0.11111148446798325,
          -0.07136034220457077,
          -0.07663212716579437,
          -0.09921201318502426,
          -0.1048491820693016,
          0.15957243740558624,
          0.179280087351799,
          0.017390655353665352,
          0.16175749897956848,
          0.18056833744049072,
          -0.11049175262451172,
          -0.09949759393930435,
          -0.2087351679801941,
          0.07920937985181808,
          -0.12734362483024597,
          -0.060344234108924866,
          -0.17422382533550262,
          0.012385099194943905,
          -0.15600824356079102,
          0.21181952953338623,
          0.1809406727552414,
          0.058472633361816406,
          -0.305138498544693,
          0.08664721995592117,
          -0.17613938450813293,
          -0.07523740082979202,
          0.08278489112854004,
          -0.2646189332008362,
          -0.040996845811605453,
          -0.05254529044032097,
          -0.07614105194807053,
          -0.07618974149227142
        ],
        [
          -0.1518164873123169,
          -0.14238686859607697,
          -0.09811019152402878,
          0.027628852054476738,
          0.18865996599197388,
          -0.05680059269070625,
          -0.01960763894021511,
          0.14302118122577667,
          0.07601433247327805,
          -0.1665138155221939,
          -0.11154092103242874,
          -0.1578172892332077,
          0.08191537111997604,
          0.2865428328514099,
          0.11980490386486053,
          0.15720583498477936,
          0.24523292481899261,
          0.13961152732372284,
          -0.06091528385877609,
          0.1478738933801651,
          0.14941680431365967,
          0.004516287241131067,
          -0.16168656945228577,
          -0.17058208584785461,
          0.0620642714202404,
          -0.03701514005661011,
          -0.09905888140201569,
          0.07983465492725372,
          -0.17636479437351227,
          -0.027334604412317276,
          0.1440148949623108,
          0.14459726214408875,
          -0.24844616651535034,
          0.09599829465150833,
          -0.13153883814811707,
          -0.04100222513079643,
          0.213592529296875,
          -0.018722204491496086,
          0.212998628616333,
          -0.13837185502052307,
          -0.0259621050208807,
          0.02855250984430313,
          -0.0551733672618866,
          0.13678805530071259,
          0.15912041068077087,
          0.23824502527713776,
          0.19921115040779114,
          0.14935021102428436,
          0.18948617577552795,
          -0.19889986515045166,
          -0.10585340112447739,
          -0.0265821423381567,
          -0.03966547176241875,
          -0.21345879137516022,
          0.14881184697151184,
          -0.14549249410629272,
          -0.06355343014001846,
          -0.13808849453926086,
          -0.18313968181610107,
          -0.09116389602422714,
          -0.13024075329303741,
          -0.1207173615694046,
          -0.08260409533977509,
          0.21830116212368011
        ],
        [
          0.07001128792762756,
          -0.10676029324531555,
          -0.2180464267730713,
          0.2500627338886261,
          -0.2549671232700348,
          -0.06162367761135101,
          -0.009669573046267033,
          -0.14185884594917297,
          0.0009559476748108864,
          0.15997135639190674,
          0.04860813170671463,
          -0.184062659740448,
          -0.10475615411996841,
          0.04105569049715996,
          -0.11718457192182541,
          -0.05247069522738457,
          -0.17703823745250702,
          0.1500794142484665,
          0.25278714299201965,
          -0.006231791339814663,
          0.03446545824408531,
          0.14901228249073029,
          -0.2504376769065857,
          0.051858577877283096,
          -0.04369216039776802,
          -0.2435743361711502,
          0.04046381637454033,
          -0.07416228950023651,
          0.0007599071832373738,
          -0.07195128500461578,
          -0.10293100029230118,
          0.11141721159219742,
          0.15042665600776672,
          -0.14672961831092834,
          0.06137562170624733,
          0.05708468705415726,
          -0.17239628732204437,
          0.2599658668041229,
          0.15299445390701294,
          0.11303051561117172,
          -0.006443550810217857,
          0.06945516914129257,
          0.17955145239830017,
          0.09482449293136597,
          0.18996891379356384,
          -0.05303965508937836,
          -0.016913071274757385,
          -0.11055081337690353,
          0.12062301486730576,
          0.2122144252061844,
          0.10985707491636276,
          0.07680602371692657,
          -0.11251112818717957,
          0.16866594552993774,
          0.18612124025821686,
          0.05265313386917114,
          -0.10596202313899994,
          0.03768374025821686,
          -0.07834669202566147,
          0.054239410907030106,
          0.029281681403517723,
          -0.2735998034477234,
          0.15076221525669098,
          0.09786026924848557
        ],
        [
          -0.03908373787999153,
          0.14934714138507843,
          0.19642022252082825,
          -0.20976188778877258,
          -0.1583835482597351,
          -0.014964410103857517,
          0.26530298590660095,
          -0.10229095816612244,
          -0.18168610334396362,
          -0.23120008409023285,
          0.25487446784973145,
          -0.1463831514120102,
          -0.06150303781032562,
          -0.23771215975284576,
          -0.10010331124067307,
          -0.012640375643968582,
          0.1358439028263092,
          -0.14075113832950592,
          -0.19493763148784637,
          -0.11738189309835434,
          0.1779642254114151,
          -0.1491474211215973,
          0.10406012833118439,
          -0.18602119386196136,
          0.12920694053173065,
          -0.026775827631354332,
          0.11669624596834183,
          0.23674744367599487,
          -0.00769006134942174,
          -0.22840219736099243,
          0.02042706497013569,
          0.11266646534204483,
          -0.09819792956113815,
          0.15898555517196655,
          0.18698492646217346,
          -0.09419712424278259,
          -0.018430905416607857,
          0.07984630018472672,
          -0.12119191884994507,
          -0.23862189054489136,
          0.17596228420734406,
          -0.08033861219882965,
          0.0753740519285202,
          0.1067134439945221,
          -0.11137080937623978,
          -0.10633981227874756,
          -0.16916751861572266,
          -0.19956831634044647,
          -0.0336407907307148,
          -0.13307084143161774,
          -0.12374001741409302,
          -0.016665933653712273,
          0.1757313311100006,
          -0.16273561120033264,
          -0.028965245932340622,
          0.17545703053474426,
          -0.16140885651111603,
          0.2624892294406891,
          -0.14274916052818298,
          -0.08822547644376755,
          -0.016652848571538925,
          -0.11511453986167908,
          0.28328418731689453,
          -0.17065921425819397
        ],
        [
          0.019747622311115265,
          0.026088913902640343,
          0.17006534337997437,
          -0.09188955277204514,
          -0.08900398761034012,
          -0.1294112652540207,
          -0.03386213257908821,
          -0.055790338665246964,
          0.032598480582237244,
          0.027181580662727356,
          0.10987216979265213,
          0.10920445621013641,
          0.03782342001795769,
          -0.04300461709499359,
          0.0660049244761467,
          0.2262120246887207,
          0.1338968276977539,
          -0.07426615059375763,
          0.0821225494146347,
          -0.2023458331823349,
          0.08341094851493835,
          0.22054429352283478,
          0.23396553099155426,
          -0.014030217193067074,
          0.21263745427131653,
          0.08685161918401718,
          -0.15396882593631744,
          -0.19112057983875275,
          -0.037282995879650116,
          -0.18582642078399658,
          0.07083163410425186,
          0.08487369120121002,
          -0.14962731301784515,
          -0.16422390937805176,
          -0.23987367749214172,
          -0.07649419456720352,
          0.13537539541721344,
          0.16690091788768768,
          0.07418286800384521,
          0.07598144561052322,
          0.14527922868728638,
          0.16796423494815826,
          -0.14890716969966888,
          -0.21479403972625732,
          0.045222438871860504,
          -0.11563018709421158,
          0.007518184371292591,
          0.20808060467243195,
          -0.1733109951019287,
          0.09409433603286743,
          -0.004132803529500961,
          -0.17440342903137207,
          -0.053888771682977676,
          -0.21448571979999542,
          0.124241903424263,
          -0.0470510832965374,
          0.1370147168636322,
          -0.11997148394584656,
          0.26161953806877136,
          -0.18638117611408234,
          -0.024285513907670975,
          -0.15994781255722046,
          -0.043047454208135605,
          -0.2354048639535904
        ],
        [
          -0.0814005509018898,
          0.047332894057035446,
          0.07534527778625488,
          0.013475686311721802,
          -0.0015686945989727974,
          -0.21816691756248474,
          -0.13467934727668762,
          -0.2128065526485443,
          0.02348797582089901,
          -0.04614339396357536,
          -0.21694056689739227,
          0.01631879433989525,
          -0.08155056834220886,
          0.10347592085599899,
          0.1051427498459816,
          -0.1498318910598755,
          0.0305031631141901,
          -0.1418355256319046,
          -0.07323863357305527,
          -0.14353813230991364,
          -0.14286473393440247,
          -0.18310056626796722,
          0.037293437868356705,
          0.17993609607219696,
          0.15946045517921448,
          -0.03884536400437355,
          0.0744585320353508,
          -0.08653222769498825,
          0.005975077860057354,
          -0.1800055056810379,
          0.1277269423007965,
          0.04823964461684227,
          0.16430707275867462,
          -0.2175811529159546,
          0.1619238406419754,
          -0.038809120655059814,
          0.11719058454036713,
          0.2711995244026184,
          -0.11278223246335983,
          -0.23066312074661255,
          0.028312599286437035,
          -0.147732675075531,
          0.10721489042043686,
          0.17793770134449005,
          0.233385369181633,
          0.056759148836135864,
          -0.23579420149326324,
          -0.28288471698760986,
          0.2155487835407257,
          0.08875040709972382,
          0.015389684587717056,
          0.16275209188461304,
          0.09446495771408081,
          -0.12028045207262039,
          0.0891132801771164,
          -0.14641520380973816,
          0.21142582595348358,
          -0.19744399189949036,
          0.07565408945083618,
          0.10040807723999023,
          0.06269598007202148,
          0.0930270105600357,
          0.22308789193630219,
          -0.2080978900194168
        ],
        [
          0.18954645097255707,
          -0.1407465636730194,
          -0.01474935282021761,
          0.23118174076080322,
          -0.095250204205513,
          0.18263036012649536,
          -0.21254320442676544,
          0.1420806348323822,
          0.2515067160129547,
          0.1690782755613327,
          0.08515340834856033,
          -0.07575047016143799,
          -0.08435254544019699,
          0.13400739431381226,
          0.0031110902782529593,
          0.2454313039779663,
          0.16053391993045807,
          0.16886113584041595,
          -0.04745016247034073,
          -0.19809162616729736,
          -0.20047527551651,
          0.12616930902004242,
          -0.07019232958555222,
          0.07685920596122742,
          -0.09233132004737854,
          0.09302730113267899,
          0.027095016092061996,
          0.06802833825349808,
          -0.19813983142375946,
          -0.04332491755485535,
          -0.03921404108405113,
          -0.0025914404541254044,
          -0.030158568173646927,
          0.1435922533273697,
          -0.16853521764278412,
          0.10547652095556259,
          0.1818770170211792,
          -0.1947159618139267,
          -0.15730500221252441,
          -0.08687703311443329,
          0.09496480226516724,
          -0.06378339231014252,
          0.051247820258140564,
          0.2325679510831833,
          -0.13155584037303925,
          0.00011780182830989361,
          -0.14981521666049957,
          0.10926464945077896,
          0.15173791348934174,
          -0.14698165655136108,
          0.11712436378002167,
          0.004261822905391455,
          -0.17114926874637604,
          -0.048206888139247894,
          0.16243183612823486,
          -0.03706883639097214,
          0.21232843399047852,
          0.26130393147468567,
          0.21375316381454468,
          0.1848800927400589,
          0.05223463103175163,
          0.023784179240465164,
          0.1347842961549759,
          -0.10957535356283188
        ],
        [
          0.2744123637676239,
          0.16784948110580444,
          0.19147366285324097,
          -0.1346580982208252,
          0.15755581855773926,
          -0.07897144556045532,
          -0.08058833330869675,
          -0.0598217137157917,
          -0.07166559994220734,
          -0.05471371114253998,
          0.06272991001605988,
          0.10890565067529678,
          -0.07196592539548874,
          0.21015115082263947,
          -0.011686095036566257,
          -0.012145710177719593,
          0.07362630218267441,
          0.20154538750648499,
          -0.2307940572500229,
          0.006251565180718899,
          0.1047513335943222,
          0.04253949224948883,
          -0.12992599606513977,
          0.028793299570679665,
          -0.2253776341676712,
          0.20159757137298584,
          0.01785050332546234,
          0.02478473260998726,
          0.029500197619199753,
          0.16093353927135468,
          0.10507344454526901,
          0.11435789614915848,
          -0.16413576900959015,
          -0.171152725815773,
          0.11438076198101044,
          -0.1751725673675537,
          -0.09249232709407806,
          -0.1756937950849533,
          -0.10228440910577774,
          -0.09391739219427109,
          -0.12808240950107574,
          -0.004191611893475056,
          -0.06775819510221481,
          0.21585436165332794,
          -0.0830976814031601,
          -0.0874904915690422,
          0.25160667300224304,
          0.1025255024433136,
          -0.02547759935259819,
          0.0043996721506118774,
          -0.24830813705921173,
          -0.12097517400979996,
          0.2518691420555115,
          -0.10565311461687088,
          -0.00966794602572918,
          0.17625537514686584,
          -0.14439497888088226,
          0.22164270281791687,
          -0.062469176948070526,
          -0.22465230524539948,
          0.06042030081152916,
          0.20836606621742249,
          0.04498952627182007,
          0.08855825662612915
        ],
        [
          -0.204806387424469,
          -0.041299495846033096,
          -0.1769009381532669,
          -0.03275962918996811,
          -0.01030922494828701,
          0.024009479209780693,
          -0.008219857700169086,
          -0.11630591750144958,
          0.14270909130573273,
          0.12185809016227722,
          -0.22721576690673828,
          0.23589225113391876,
          -0.039578791707754135,
          -0.2963000535964966,
          -0.13789163529872894,
          0.03561178967356682,
          0.22501659393310547,
          -0.1629914939403534,
          -0.11016660183668137,
          -0.1909012347459793,
          -0.08336145430803299,
          -0.16675132513046265,
          0.0100179985165596,
          -0.18656285107135773,
          -0.08052369952201843,
          -0.07043527811765671,
          -0.2242104560136795,
          -0.10300746560096741,
          -0.03190652281045914,
          -0.025664687156677246,
          -0.186770498752594,
          0.1784353256225586,
          -0.059166304767131805,
          0.24195493757724762,
          -0.1887318342924118,
          -0.18726588785648346,
          0.23900015652179718,
          -0.010640842840075493,
          0.03615254536271095,
          -0.15117612481117249,
          0.15776057541370392,
          -0.09440121799707413,
          0.0714561939239502,
          0.21675825119018555,
          -0.036719486117362976,
          -0.02804790623486042,
          0.19984523952007294,
          0.26197710633277893,
          -0.12108311802148819,
          0.19450773298740387,
          -0.1860964596271515,
          0.15718184411525726,
          -0.07650478184223175,
          0.17217199504375458,
          -0.11767610907554626,
          -0.07810556143522263,
          0.05158237740397453,
          -0.019560296088457108,
          0.25017446279525757,
          -0.09362354874610901,
          -0.09668140113353729,
          -0.149269700050354,
          -0.17888034880161285,
          0.11084302514791489
        ],
        [
          -0.1004040390253067,
          -0.1434318721294403,
          0.042678821831941605,
          0.030222514644265175,
          -0.10463795065879822,
          -0.01155451126396656,
          -0.17589016258716583,
          0.17703251540660858,
          0.031996939331293106,
          0.04509700462222099,
          0.08155446499586105,
          0.04145583137869835,
          -0.14547505974769592,
          0.03766036033630371,
          -0.07652091234922409,
          0.06796075403690338,
          0.2311495840549469,
          0.12772655487060547,
          -0.02911284565925598,
          0.2749926447868347,
          0.12255311757326126,
          0.26644226908683777,
          0.22091947495937347,
          0.22907371819019318,
          0.023045167326927185,
          0.07370655983686447,
          -0.10994801670312881,
          0.055840034037828445,
          -0.2945699691772461,
          -0.07749748229980469,
          -0.22182679176330566,
          0.011647163890302181,
          0.17374415695667267,
          0.13789235055446625,
          -0.20829704403877258,
          0.19922460615634918,
          -0.11974162608385086,
          0.18515673279762268,
          -0.18961474299430847,
          -0.20578961074352264,
          0.1995002031326294,
          -0.08740535378456116,
          -0.16179567575454712,
          0.30544519424438477,
          -0.07567157596349716,
          0.010435279458761215,
          0.19440631568431854,
          -0.0880696102976799,
          0.12436223030090332,
          -0.2770618498325348,
          0.1168464869260788,
          0.1853863000869751,
          -0.10847314447164536,
          -0.15121735632419586,
          -0.006716039031744003,
          -0.0983918085694313,
          0.24968570470809937,
          -0.16152344644069672,
          0.07551165670156479,
          -0.11181528121232986,
          0.24256548285484314,
          -0.2604060173034668,
          0.05301902815699577,
          0.08288546651601791
        ],
        [
          0.23287922143936157,
          -0.19533289968967438,
          0.05227217450737953,
          0.18570087850093842,
          0.21070994436740875,
          0.0066242702305316925,
          0.2003864347934723,
          -0.34052011370658875,
          0.2009063959121704,
          -0.3415377736091614,
          0.005106012802571058,
          0.1521390825510025,
          0.05177967995405197,
          0.12576539814472198,
          -0.05276614427566528,
          -0.3378532826900482,
          -0.17105691134929657,
          -0.2024848759174347,
          0.20076756179332733,
          -0.2301904559135437,
          0.2669529914855957,
          -0.12688155472278595,
          -0.12391120940446854,
          -0.2573927044868469,
          0.0775981992483139,
          -0.11105886101722717,
          -0.2937015891075134,
          0.2440401017665863,
          0.2759511470794678,
          0.2586672604084015,
          -0.028525756672024727,
          0.12656357884407043,
          -0.08475352823734283,
          -0.2044496238231659,
          -0.3397641181945801,
          -0.3303287625312805,
          -0.05901440605521202,
          0.2566973567008972,
          0.3287186622619629,
          -0.15615400671958923,
          -0.23126952350139618,
          0.054425545036792755,
          -0.04720228910446167,
          -0.0015572209376841784,
          0.3161587715148926,
          0.4344504177570343,
          0.039783768355846405,
          0.1603010892868042,
          0.23808623850345612,
          -0.001057716435752809,
          -0.10202285647392273,
          0.010558733716607094,
          0.010776704177260399,
          -0.05110691115260124,
          0.3418157398700714,
          -0.100357286632061,
          0.024744855239987373,
          0.06420090794563293,
          0.04266359657049179,
          0.3125882148742676,
          0.32848060131073,
          -0.025690246373414993,
          -0.07720225304365158,
          -0.3707446753978729
        ],
        [
          0.2525416910648346,
          0.23712356388568878,
          0.11177407205104828,
          -0.09878585487604141,
          0.17748111486434937,
          0.25834065675735474,
          0.19079135358333588,
          -0.2866004407405853,
          0.28874722123146057,
          -0.1863214522600174,
          -0.10252390056848526,
          -0.21586394309997559,
          0.07633130252361298,
          -0.21330435574054718,
          -0.06419368088245392,
          0.043937619775533676,
          -0.1407739222049713,
          -0.10975276678800583,
          -0.11056779325008392,
          0.20518045127391815,
          0.11967691034078598,
          -0.13319575786590576,
          0.18509629368782043,
          -0.012520402669906616,
          0.11787281185388565,
          0.04611991345882416,
          0.10730308294296265,
          0.21088950335979462,
          -0.035089053213596344,
          -0.16111503541469574,
          0.03790662810206413,
          0.009053925052285194,
          0.2609310746192932,
          0.12399259209632874,
          -0.14460673928260803,
          -0.14968116581439972,
          0.018491338938474655,
          0.18031595647335052,
          -0.1808202862739563,
          -0.25605326890945435,
          -0.2717582881450653,
          -0.1734337955713272,
          0.020842010155320168,
          0.04483114555478096,
          0.1367960274219513,
          0.36362141370773315,
          0.018612677231431007,
          0.24907462298870087,
          -0.1244664341211319,
          0.030289696529507637,
          -0.14386940002441406,
          -0.29643890261650085,
          -0.20306611061096191,
          0.10893578082323074,
          -0.005929382983595133,
          -0.12330467998981476,
          -0.1780293732881546,
          -0.1219833567738533,
          -0.14619605243206024,
          0.26441019773483276,
          0.2376045435667038,
          -0.22116006910800934,
          -0.23952051997184753,
          -0.2593574821949005
        ],
        [
          0.03810877725481987,
          -0.05946136265993118,
          0.15212884545326233,
          -0.059044357389211655,
          -0.3621390759944916,
          -0.05941668897867203,
          0.010585948824882507,
          -0.056660596281290054,
          -0.20484484732151031,
          0.17647738754749298,
          -0.10086125880479813,
          0.07537204772233963,
          0.0023385165259242058,
          0.06836874783039093,
          0.2692509889602661,
          0.16349150240421295,
          -0.1012553945183754,
          -0.007952898740768433,
          0.2185925990343094,
          0.15603265166282654,
          -0.18484851717948914,
          -0.04451001435518265,
          0.05244038626551628,
          -0.2877007722854614,
          -0.0007124257972463965,
          -0.0981670394539833,
          -0.17881014943122864,
          0.03588666021823883,
          -0.171302929520607,
          -0.23933731019496918,
          -0.14930042624473572,
          -0.11705192923545837,
          -0.11129751056432724,
          0.10001450777053833,
          0.2263377159833908,
          -0.13357646763324738,
          0.18885429203510284,
          0.11042778193950653,
          -0.2620091140270233,
          -0.03072580136358738,
          0.2726708948612213,
          0.22137923538684845,
          -0.16378498077392578,
          -0.04302690550684929,
          -0.027408864349126816,
          -0.20178206264972687,
          -0.05522621423006058,
          -0.15101751685142517,
          -0.031487345695495605,
          0.19359776377677917,
          0.28122061491012573,
          -0.04033873602747917,
          -0.14957503974437714,
          -0.11474676430225372,
          -0.2808460593223572,
          0.0035827651154249907,
          -0.22324495017528534,
          -0.11137202382087708,
          0.1951318383216858,
          -0.2262350171804428,
          0.1672576516866684,
          0.17750610411167145,
          0.14741113781929016,
          0.17436587810516357
        ],
        [
          -0.12159742414951324,
          0.07573974877595901,
          0.17572824656963348,
          0.07112381607294083,
          -0.020188897848129272,
          0.2697412371635437,
          -0.14762462675571442,
          -0.281476765871048,
          -0.04485614225268364,
          0.11297868192195892,
          0.22060179710388184,
          0.0856480672955513,
          0.2157052606344223,
          -0.13659101724624634,
          0.09215395897626877,
          -0.1720142513513565,
          0.10365818440914154,
          -0.18617285788059235,
          -0.1808251440525055,
          -0.0790766105055809,
          -0.14604052901268005,
          -0.10501449555158615,
          -0.1936001181602478,
          -0.047628194093704224,
          -0.052752986550331116,
          -0.1495549976825714,
          0.1293952912092209,
          -0.23628106713294983,
          -0.05177702754735947,
          0.18189381062984467,
          -0.09973932802677155,
          -0.14007709920406342,
          0.060166873037815094,
          0.20527811348438263,
          0.15843898057937622,
          0.03675488755106926,
          -0.044953007251024246,
          -0.11132024973630905,
          0.0625922828912735,
          0.0800253376364708,
          0.21231289207935333,
          -0.05546782538294792,
          0.08086667209863663,
          -0.19633138179779053,
          -0.08201169222593307,
          0.05511399358510971,
          -0.03958267346024513,
          0.08047393709421158,
          0.1047375276684761,
          0.1541377305984497,
          -0.09934680908918381,
          -0.15703780949115753,
          0.10771727561950684,
          -0.1125374287366867,
          0.005691018421202898,
          -0.17971254885196686,
          0.13632872700691223,
          -0.036809179931879044,
          0.13865803182125092,
          0.22536955773830414,
          -0.1879672110080719,
          0.08672645688056946,
          0.08545520901679993,
          -0.06413949280977249
        ],
        [
          -0.0994877889752388,
          -0.0927310585975647,
          0.16546283662319183,
          0.20153377950191498,
          -0.034293998032808304,
          -0.1298837512731552,
          -0.16460078954696655,
          0.06898656487464905,
          -0.1214003711938858,
          -0.03221765160560608,
          0.17844583094120026,
          0.00648494390770793,
          0.09302908182144165,
          0.06686170399188995,
          0.17091813683509827,
          0.011521206237375736,
          -0.2537078559398651,
          -0.17900022864341736,
          -0.15274259448051453,
          -0.02398104779422283,
          -0.2536659836769104,
          -0.0039338101632893085,
          -0.1296451836824417,
          0.21211177110671997,
          -0.17121455073356628,
          -0.18054741621017456,
          -0.03071540966629982,
          -0.2428124099969864,
          0.24601298570632935,
          -0.23329517245292664,
          0.1543251872062683,
          0.24111241102218628,
          0.03529427573084831,
          0.04038747400045395,
          -0.11619063466787338,
          -0.09664080291986465,
          -0.1804215908050537,
          -0.12130530178546906,
          0.10669731348752975,
          -0.10205533355474472,
          0.22151342034339905,
          -0.053985584527254105,
          -0.21350111067295074,
          -0.07023129612207413,
          -0.054269999265670776,
          -0.012431030161678791,
          0.07830860465765,
          -0.17186155915260315,
          -0.034967102110385895,
          0.04821349307894707,
          0.11685700714588165,
          0.2083728313446045,
          -0.06266173720359802,
          0.1378111094236374,
          -0.2396842986345291,
          -0.026208436116576195,
          -0.065731942653656,
          -0.2978087365627289,
          -0.1186370924115181,
          -0.014069708064198494,
          -0.11454248428344727,
          -0.08829048275947571,
          -0.20325778424739838,
          0.06873086094856262
        ],
        [
          -0.07414396107196808,
          0.20045089721679688,
          -0.06716015189886093,
          0.18863680958747864,
          0.16932514309883118,
          0.20354202389717102,
          -0.11543871462345123,
          0.013235470280051231,
          -0.1918531209230423,
          0.022054510191082954,
          -0.221505805850029,
          -0.07510965317487717,
          -0.048564545810222626,
          0.02116485685110092,
          0.24156847596168518,
          0.11163037270307541,
          -0.14094048738479614,
          -0.10033049434423447,
          -0.225309818983078,
          -0.16321061551570892,
          -0.07336799055337906,
          0.19065721333026886,
          -0.10149260610342026,
          0.23476485908031464,
          -0.006630288902670145,
          -0.11414092779159546,
          -0.11264565587043762,
          0.14406496286392212,
          -0.045537106692790985,
          0.033911269158124924,
          -0.2616688013076782,
          0.21813732385635376,
          -0.036585792899131775,
          -0.20739702880382538,
          -0.146600142121315,
          0.005383157171308994,
          0.018080629408359528,
          0.044296588748693466,
          0.21050499379634857,
          -0.1919194608926773,
          -0.1612238585948944,
          0.10540080815553665,
          0.22262032330036163,
          -0.02120944671332836,
          0.14939221739768982,
          -0.24990558624267578,
          0.0030498041305691004,
          0.13464893400669098,
          -0.3105188310146332,
          -0.20418599247932434,
          0.2130637913942337,
          -0.2065872997045517,
          0.2124665379524231,
          0.0007435438456013799,
          0.1333772838115692,
          0.07071932405233383,
          -0.06664756685495377,
          0.11454910784959793,
          -0.06338624656200409,
          0.09492654353380203,
          0.1698736697435379,
          0.1210315003991127,
          0.2508525252342224,
          0.043664999306201935
        ],
        [
          -0.11204420030117035,
          0.18382015824317932,
          0.027277102693915367,
          -0.2394469529390335,
          0.13316230475902557,
          -0.170940101146698,
          -0.1542961299419403,
          -0.28461965918540955,
          0.12009531259536743,
          0.2564748525619507,
          0.2242739498615265,
          0.12882916629314423,
          -0.13389262557029724,
          -0.3322276771068573,
          -0.2764725089073181,
          0.21244601905345917,
          -0.0509202815592289,
          -0.28187525272369385,
          -0.09252999722957611,
          -0.037408750504255295,
          0.11245173960924149,
          0.1347348988056183,
          0.10529952496290207,
          0.23912803828716278,
          -0.10824723541736603,
          -0.11994821578264236,
          -0.11533014476299286,
          -0.19693030416965485,
          0.07944172620773315,
          0.18415383994579315,
          0.29596787691116333,
          0.04369855299592018,
          -0.11242930591106415,
          -0.21659651398658752,
          0.07615019381046295,
          -0.055261850357055664,
          -0.22266732156276703,
          -0.13061538338661194,
          0.17781797051429749,
          -0.018814994022250175,
          0.02165074460208416,
          0.22311000525951385,
          -0.2604497969150543,
          0.0029322493355721235,
          0.12364286184310913,
          0.005038976203650236,
          -0.16465912759304047,
          0.15157188475131989,
          -0.019748438149690628,
          -0.10045731067657471,
          -0.0949544832110405,
          -0.03567156195640564,
          -0.05482298508286476,
          0.21616452932357788,
          0.12330625206232071,
          -0.23667918145656586,
          0.12216837704181671,
          0.16333235800266266,
          0.13595443964004517,
          0.11810865253210068,
          0.19681549072265625,
          0.15665344893932343,
          -0.06513795256614685,
          -0.27831676602363586
        ],
        [
          -0.2079460471868515,
          0.15176455676555634,
          -0.1158013865351677,
          0.1401451677083969,
          -0.004584080073982477,
          0.05808195471763611,
          -0.11846714466810226,
          -0.018148837611079216,
          0.17380714416503906,
          0.13965389132499695,
          0.190927192568779,
          0.13763509690761566,
          -0.09686949849128723,
          -0.04899158701300621,
          -0.17119760811328888,
          -0.12350895255804062,
          0.04984473064541817,
          0.2211253046989441,
          -0.09885382652282715,
          -0.15906749665737152,
          -0.19995582103729248,
          -0.17161409556865692,
          -0.2079138308763504,
          -0.18518216907978058,
          0.14665183424949646,
          0.0760519802570343,
          0.21171531081199646,
          0.18246950209140778,
          0.18437489867210388,
          0.04949185252189636,
          0.018943415954709053,
          -0.12170528620481491,
          0.2210547924041748,
          0.144345223903656,
          0.06880001723766327,
          0.03854089975357056,
          0.037483494728803635,
          -0.03169499337673187,
          -0.017702927812933922,
          0.07715027779340744,
          -0.2814967632293701,
          0.06247507035732269,
          0.02601085789501667,
          0.023635221645236015,
          -0.05567433312535286,
          -0.12434565275907516,
          0.18820708990097046,
          0.1927024871110916,
          0.1560697704553604,
          -0.1127718836069107,
          0.23386172950267792,
          0.15644145011901855,
          -0.02283385768532753,
          0.02247624285519123,
          -0.15714173018932343,
          0.23827609419822693,
          0.09071297943592072,
          0.06054580211639404,
          0.0712776631116867,
          -0.18842892348766327,
          0.15897256135940552,
          -0.2022198885679245,
          -0.19560815393924713,
          0.020130600780248642
        ],
        [
          -0.11469254642724991,
          0.11017536371946335,
          0.3651082515716553,
          -0.12716315686702728,
          0.006775841116905212,
          -0.11288916319608688,
          0.012818440794944763,
          0.044878020882606506,
          -0.1648862063884735,
          0.2854602336883545,
          0.18091368675231934,
          0.1721799224615097,
          0.24519914388656616,
          -0.11974025517702103,
          0.11256565898656845,
          -0.25099533796310425,
          -0.19606253504753113,
          0.15520928800106049,
          -0.01624884642660618,
          0.019032400101423264,
          0.016438940539956093,
          0.18334898352622986,
          -0.3032662868499756,
          -0.13269543647766113,
          0.25349724292755127,
          0.0583333820104599,
          0.16352103650569916,
          -0.046616993844509125,
          -0.193425253033638,
          -0.19743205606937408,
          0.2328794300556183,
          -0.04065461829304695,
          0.08243077993392944,
          -0.10021176934242249,
          -0.1329554170370102,
          0.023198308423161507,
          0.14952801167964935,
          0.14628419280052185,
          0.018922366201877594,
          0.15388604998588562,
          0.119379423558712,
          -0.14155934751033783,
          -0.18210652470588684,
          0.20384691655635834,
          -0.13375262916088104,
          0.13377328217029572,
          -0.3618416488170624,
          -0.19897347688674927,
          -0.016490742564201355,
          -0.11670327931642532,
          0.20576068758964539,
          0.1866108775138855,
          -0.00922273937612772,
          0.20804110169410706,
          0.27748385071754456,
          0.1950075328350067,
          0.04326390102505684,
          0.2118043452501297,
          0.19316455721855164,
          -0.007821477018296719,
          -0.13202250003814697,
          -0.09959670156240463,
          -0.037439022213220596,
          -0.05766969174146652
        ],
        [
          0.027092402800917625,
          -0.0074136205948889256,
          -0.07538304477930069,
          0.05348736047744751,
          0.2305476814508438,
          -0.07965630292892456,
          -0.11343236267566681,
          -0.2550274431705475,
          0.051310908049345016,
          -0.22005046904087067,
          -0.16477996110916138,
          0.2387637346982956,
          0.06435877829790115,
          0.20279383659362793,
          0.01789082959294319,
          -0.21310895681381226,
          0.2275712639093399,
          0.18398913741111755,
          -0.1130782961845398,
          -0.031857121735811234,
          -0.2449176162481308,
          -0.19042687118053436,
          -0.09971144050359726,
          -0.18572773039340973,
          -0.06502776592969894,
          -0.04366092383861542,
          -0.035574451088905334,
          0.08537454903125763,
          -0.12848056852817535,
          0.2000158578157425,
          0.16194969415664673,
          -0.315927118062973,
          0.06245911866426468,
          -0.11229303479194641,
          0.02549012377858162,
          -0.18156161904335022,
          -0.22587603330612183,
          -0.10346796363592148,
          0.25434839725494385,
          -0.24924100935459137,
          -0.007747354451566935,
          0.18283763527870178,
          0.13692811131477356,
          0.08841128647327423,
          -0.04004823416471481,
          -0.15457984805107117,
          0.1242562010884285,
          -0.0021693503949791193,
          0.047849517315626144,
          -0.19526569545269012,
          0.13098573684692383,
          0.15051226317882538,
          -0.1866936832666397,
          0.22872066497802734,
          0.16325238347053528,
          -0.07156714051961899,
          -0.10037106275558472,
          -0.16416986286640167,
          -0.1461596041917801,
          0.0007912411820143461,
          0.1762634515762329,
          0.20376385748386383,
          -0.022060083225369453,
          0.0812399610877037
        ],
        [
          -0.19538551568984985,
          -0.20588544011116028,
          -0.17535202205181122,
          0.13792775571346283,
          -0.07417523115873337,
          0.19597522914409637,
          0.0837886855006218,
          0.08767393231391907,
          0.25296691060066223,
          -0.06291461735963821,
          -0.16596001386642456,
          -0.13748350739479065,
          0.05742232874035835,
          -0.1808680295944214,
          -0.11571897566318512,
          0.2129155993461609,
          0.08070147037506104,
          0.040158241987228394,
          0.21244844794273376,
          0.2383756935596466,
          0.10977083444595337,
          -0.20058223605155945,
          -0.13590160012245178,
          0.015950558707118034,
          0.18617947399616241,
          0.06038964167237282,
          -0.13655337691307068,
          0.014156275428831577,
          0.05262184888124466,
          -0.06493790447711945,
          0.12022334337234497,
          -0.1266571581363678,
          -0.14625659584999084,
          -0.10318823903799057,
          -0.1056751012802124,
          -0.05308636650443077,
          0.25006982684135437,
          -0.0512385293841362,
          -0.11352625489234924,
          -0.13023000955581665,
          0.15789616107940674,
          0.09854517132043839,
          0.23636600375175476,
          -0.09124413132667542,
          -0.03946981579065323,
          0.03160963952541351,
          -0.07189442217350006,
          -0.16111262142658234,
          0.15241560339927673,
          0.12079688161611557,
          0.16040357947349548,
          -0.13427218794822693,
          -0.21756932139396667,
          -0.05503850430250168,
          0.14857807755470276,
          -0.05215130373835564,
          -0.06874662637710571,
          0.15154962241649628,
          -0.19554217159748077,
          -0.03107001632452011,
          0.04341944679617882,
          -0.18528278172016144,
          0.13209226727485657,
          -0.03687186911702156
        ],
        [
          -0.22261658310890198,
          0.1719677448272705,
          -0.0373443104326725,
          -0.09405778348445892,
          -0.13591399788856506,
          -0.09529154002666473,
          0.19393514096736908,
          0.1753900647163391,
          0.025471946224570274,
          -0.12297473847866058,
          0.09163061529397964,
          -0.017246518284082413,
          -0.20603199303150177,
          0.14327631890773773,
          -0.19143186509609222,
          -0.03188660368323326,
          0.2536158859729767,
          -0.21444962918758392,
          0.03033294342458248,
          -0.15783365070819855,
          -0.07652805000543594,
          -0.17575839161872864,
          -0.04867158457636833,
          0.11572891473770142,
          0.2266838401556015,
          0.25707632303237915,
          0.09175858646631241,
          0.004477581009268761,
          -0.08334506303071976,
          0.18865208327770233,
          -0.12994374334812164,
          -0.20183324813842773,
          0.245123952627182,
          -0.25801101326942444,
          -0.06842143088579178,
          -0.009529207833111286,
          0.05416180565953255,
          -0.09329591691493988,
          0.13322813808918,
          0.1383558064699173,
          0.1282552182674408,
          -0.25494134426116943,
          0.11760059744119644,
          -0.07011903822422028,
          0.09604484587907791,
          -0.1034892201423645,
          -0.12151577323675156,
          -0.03184150904417038,
          0.19508154690265656,
          0.23485569655895233,
          0.1690317541360855,
          -0.063950315117836,
          0.031022200360894203,
          -0.02551821805536747,
          -0.20431822538375854,
          -0.09947895258665085,
          -0.048527415841817856,
          0.19544075429439545,
          -0.07519195228815079,
          -0.17416279017925262,
          0.10607851296663284,
          -0.04668735712766647,
          -0.1703716367483139,
          0.03132927790284157
        ],
        [
          -0.0109744006767869,
          -0.0021723429672420025,
          0.10462813824415207,
          -0.025149045512080193,
          -0.12621526420116425,
          -0.19939179718494415,
          0.23279055953025818,
          0.13079458475112915,
          -0.013240300118923187,
          -0.14899425208568573,
          0.16782203316688538,
          0.04944834113121033,
          -0.03316136822104454,
          0.17596480250358582,
          -0.15601249039173126,
          -0.12416807562112808,
          -0.08975423872470856,
          0.17550988495349884,
          0.09691740572452545,
          -0.21026769280433655,
          0.005157860461622477,
          -0.22551696002483368,
          0.2990570664405823,
          0.054120615124702454,
          -0.16478785872459412,
          -0.083048976957798,
          0.1967465877532959,
          -0.11982657760381699,
          -0.16312472522258759,
          0.016190918162465096,
          0.04830225184559822,
          -0.16310615837574005,
          0.025871003046631813,
          0.0002551190846133977,
          0.17483341693878174,
          -0.10140793770551682,
          0.06445551663637161,
          -0.0037549252156168222,
          -0.19886061549186707,
          -0.20510847866535187,
          0.10846579819917679,
          -0.18125854432582855,
          0.010366211645305157,
          -0.055378008633852005,
          0.22907473146915436,
          0.059449490159749985,
          -0.051158204674720764,
          -0.033560704439878464,
          0.2171124964952469,
          -0.07291734218597412,
          0.13925109803676605,
          -0.1445859670639038,
          -0.13884538412094116,
          0.02968878298997879,
          -0.20552262663841248,
          -0.14091645181179047,
          -0.034913696348667145,
          -0.19577628374099731,
          0.006946456618607044,
          0.1174221858382225,
          0.015711287036538124,
          0.32978278398513794,
          0.11296571046113968,
          -0.11780616641044617
        ],
        [
          -0.14917273819446564,
          -0.20393367111682892,
          0.19485881924629211,
          -0.17982879281044006,
          -0.013430867344141006,
          -0.1114085242152214,
          0.005398869514465332,
          0.07161456346511841,
          -0.09778841584920883,
          0.16325098276138306,
          -0.028863603249192238,
          0.1403483748435974,
          -0.1137920543551445,
          0.103065125644207,
          0.0915280282497406,
          -0.037137389183044434,
          0.18621701002120972,
          -0.05140537768602371,
          0.1741035282611847,
          -0.12872786819934845,
          -0.1882404386997223,
          0.06666402518749237,
          -0.12284078449010849,
          -0.034569401293992996,
          0.038924574851989746,
          0.08096387982368469,
          0.034588638693094254,
          -0.09379337728023529,
          0.11884600669145584,
          -0.053726378828287125,
          0.22271542251110077,
          -0.1332903653383255,
          -0.02845480479300022,
          0.1249391958117485,
          0.034194763749837875,
          -0.05034426972270012,
          0.15819023549556732,
          -0.1280234158039093,
          0.08617673069238663,
          0.14573054015636444,
          -0.13501113653182983,
          -0.03448232263326645,
          -0.022967573255300522,
          0.011912590824067593,
          -0.013648171909153461,
          -0.037102121859788895,
          -0.080650195479393,
          0.11529344320297241,
          0.05054859817028046,
          -0.1298508197069168,
          0.048666082322597504,
          -0.13529913127422333,
          0.30256959795951843,
          -0.002181780058890581,
          -0.015213190577924252,
          -0.06573547422885895,
          0.1358465701341629,
          0.18276464939117432,
          -0.13156825304031372,
          -0.1165926456451416,
          0.066843681037426,
          -0.1155511662364006,
          0.022351473569869995,
          -0.0004451207350939512
        ],
        [
          -0.07001207023859024,
          0.015455869026482105,
          -0.118184395134449,
          0.09078870713710785,
          0.06329615414142609,
          -0.21283192932605743,
          0.1611950546503067,
          0.07090174406766891,
          -0.004298552870750427,
          -0.012140846811234951,
          -0.11081822216510773,
          0.11223594844341278,
          -0.2427334487438202,
          0.0662480890750885,
          -0.16799364984035492,
          0.06998109817504883,
          0.3498964011669159,
          0.03731433302164078,
          -0.10854852944612503,
          -0.054588548839092255,
          -0.26394936442375183,
          -0.1388314813375473,
          -0.021603083238005638,
          0.10213422775268555,
          -0.08775345236063004,
          0.20091833174228668,
          -0.14919401705265045,
          -0.13260288536548615,
          0.031761523336172104,
          0.020220376551151276,
          0.16048681735992432,
          0.23436439037322998,
          0.07031817734241486,
          0.05733572691679001,
          0.1709595024585724,
          -0.25560083985328674,
          -0.2826835513114929,
          0.00698471674695611,
          -0.11375828087329865,
          -0.14846362173557281,
          -0.1259300410747528,
          -0.12594720721244812,
          -0.279330849647522,
          0.13627555966377258,
          0.10310064256191254,
          0.06877264380455017,
          0.18219918012619019,
          0.10572261363267899,
          -0.16206112504005432,
          -0.01399350818246603,
          0.04429791495203972,
          -0.08045057207345963,
          0.1576347053050995,
          -0.24446019530296326,
          0.33097758889198303,
          0.10750193893909454,
          -0.278048574924469,
          -0.19511821866035461,
          0.12593168020248413,
          0.20735232532024384,
          0.22940675914287567,
          0.22519831359386444,
          -0.21751920878887177,
          0.02926657348871231
        ],
        [
          0.16339296102523804,
          -0.009218833409249783,
          -0.19205935299396515,
          0.15300564467906952,
          -0.1683412790298462,
          0.20172414183616638,
          0.04279782623052597,
          0.270433247089386,
          0.04467158019542694,
          0.027081260457634926,
          0.024511225521564484,
          0.19737505912780762,
          -0.2502148151397705,
          -0.10738693922758102,
          -0.20329423248767853,
          0.0270738136023283,
          0.2534347474575043,
          0.0022284789010882378,
          0.039514925330877304,
          0.21695493161678314,
          -0.035556282848119736,
          0.08861420303583145,
          0.005584524478763342,
          -0.20218530297279358,
          -0.1220647469162941,
          -0.12375421077013016,
          0.1737765669822693,
          0.10293558239936829,
          0.2625054121017456,
          0.02345047891139984,
          0.1804741472005844,
          -0.09377175569534302,
          0.16491283476352692,
          -0.19923023879528046,
          0.21732905507087708,
          -0.012404998764395714,
          -0.24475149810314178,
          -0.12256722897291183,
          -0.07850317656993866,
          0.13595429062843323,
          -0.0510263592004776,
          -0.13251052796840668,
          0.13131345808506012,
          -0.015166018158197403,
          0.1785496175289154,
          -0.14547233283519745,
          0.20764020085334778,
          0.2142697125673294,
          0.17461355030536652,
          0.13134951889514923,
          -0.041525546461343765,
          -0.03678426519036293,
          0.11387273669242859,
          0.2842769920825958,
          0.12899820506572723,
          -0.23371197283267975,
          -0.2107049971818924,
          0.22113528847694397,
          -0.26625752449035645,
          0.0859551802277565,
          0.2118329107761383,
          -0.2099222093820572,
          0.1368829905986786,
          -0.0889003649353981
        ]
      ],
      "bias": [
        -0.027725616469979286,
        -0.09033108502626419,
        -0.015117775648832321,
        -0.08526206761598587,
        0.037421923130750656,
        -0.02100208029150963,
        -0.004212103318423033,
        -0.03750351071357727,
        0.04345548152923584,
        -0.02247699722647667,
        -0.03917401656508446,
        0.003524135099723935,
        -0.03795494884252548,
        -0.02399856224656105,
        -0.05744015425443649,
        0.037372179329395294,
        -0.03216133266687393,
        0.02426513284444809,
        0.04381009563803673,
        -0.09185945242643356,
        0.020168060436844826,
        -0.06569081544876099,
        -0.017909251153469086,
        -0.021914485841989517,
        -0.049208033829927444,
        -0.011256495490670204,
        -0.043170515447854996,
        -0.05553743615746498,
        -0.008755173534154892,
        -0.0649106353521347,
        -0.07745177298784256,
        0.00345901632681489,
        -0.060228392481803894,
        -0.0023276216816157103,
        -0.06548561155796051,
        0.03289567679166794,
        -0.07349304109811783,
        -0.055116478353738785,
        -0.02957295812666416,
        -0.09248688071966171,
        0.015454183332622051,
        -0.06680062413215637,
        0.01193486712872982,
        0.07081598043441772,
        0.047523386776447296,
        0.002574535086750984,
        0.04981974512338638,
        -0.09102405607700348,
        -0.0028205420821905136,
        -0.11065135896205902,
        -0.03440432995557785,
        -0.060354769229888916,
        -0.05499427020549774,
        0.005808659363538027,
        0.0031430283561348915,
        0.030217792838811874,
        -0.03697926178574562,
        -0.0573413223028183,
        -0.045318055897951126,
        0.019061323255300522,
        0.005003367550671101,
        -0.05124879628419876,
        -0.027587121352553368,
        0.1102653369307518
      ],
      "activation": "relu"
    },
    {
      "weights": [
        [
          0.27776944637298584,
          0.05240838974714279,
          -0.08777978271245956,
          0.14104659855365753,
          0.19737932085990906,
          -0.12190908938646317,
          0.2678372859954834,
          -0.23309998214244843,
          0.0015212303260341287,
          -0.28015777468681335,
          -0.2611880600452423,
          0.2581428587436676,
          0.21399731934070587,
          -0.19946014881134033,
          -0.10281060636043549,
          0.05856122449040413,
          0.12221232801675797,
          0.17733365297317505,
          -0.020332958549261093,
          -0.10713489353656769,
          -0.22445188462734222,
          0.005677619017660618,
          -0.024478495121002197,
          -0.2028055042028427,
          0.022694943472743034,
          0.11335882544517517,
          0.18806788325309753,
          -0.01754448004066944,
          -0.12232532352209091,
          0.12084095925092697,
          0.04020089656114578,
          -0.06861384958028793
        ],
        [
          0.18226845562458038,
          0.20800167322158813,
          0.02821950986981392,
          0.06276217103004456,
          0.11477465182542801,
          -0.17494073510169983,
          0.0744975134730339,
          0.11612749099731445,
          -0.17246603965759277,
          -0.16757240891456604,
          -0.1544131636619568,
          0.18565240502357483,
          0.04539230093359947,
          0.055497635155916214,
          -0.07018791884183884,
          0.1259746104478836,
          -0.22490285336971283,
          -0.10429827868938446,
          -0.24844248592853546,
          0.09300488233566284,
          0.1219867691397667,
          0.041410915553569794,
          -0.025149481371045113,
          -0.08274262398481369,
          -0.04043913260102272,
          -0.2162761688232422,
          0.20422442257404327,
          -0.1460716426372528,
          -0.18832646310329437,
          0.16540609300136566,
          0.002141486620530486,
          -0.08123379945755005
        ],
        [
          0.24639973044395447,
          -0.17005962133407593,
          0.10135789960622787,
          -0.08612097054719925,
          -0.00012511119712144136,
          0.07204310595989227,
          -0.09522048383951187,
          -0.05266441032290459,
          0.04310840368270874,
          0.05626566335558891,
          0.22527144849300385,
          -0.032976023852825165,
          -0.03010760061442852,
          -0.2921959459781647,
          0.18474042415618896,
          -0.28249502182006836,
          -0.24664001166820526,
          0.10526743531227112,
          0.06057408079504967,
          0.09926819801330566,
          -0.23258449137210846,
          0.194050133228302,
          0.16638296842575073,
          0.04829951375722885,
          -0.20729979872703552,
          0.0146222785115242,
          0.21324950456619263,
          0.13961279392242432,
          -0.2256004363298416,
          -0.153629332780838,
          -0.07584841549396515,
          0.03156111016869545
        ],
        [
          -0.0505802258849144,
          0.0026368051767349243,
          0.11915185302495956,
          0.08674708753824234,
          -0.03638207167387009,
          0.01584668830037117,
          0.21272887289524078,
          0.20163539052009583,
          -0.010514036752283573,
          -0.04842568561434746,
          -0.19945749640464783,
          -0.001833795104175806,
          0.0184642281383276,
          -0.20971257984638214,
          0.2348461002111435,
          -0.19747214019298553,
          0.013575814664363861,
          0.10110826045274734,
          -0.06525928527116776,
          -0.14118225872516632,
          0.1613520234823227,
          0.2197698950767517,
          0.3065008819103241,
          -0.13850943744182587,
          0.15743759274482727,
          -0.10295908898115158,
          0.06672443449497223,
          -0.05254849046468735,
          0.18332405388355255,
          0.15193212032318115,
          0.029907792806625366,
          -0.06570717692375183
        ],
        [
          0.21629633009433746,
          -0.03040017932653427,
          -0.2427581548690796,
          0.1059340313076973,
          -0.20398378372192383,
          0.046858105808496475,
          0.24027885496616364,
          -0.07583785802125931,
          0.23704254627227783,
          -0.029175858944654465,
          -0.09524218738079071,
          -0.05785036087036133,
          0.09155021607875824,
          -0.11009088903665543,
          0.1194358766078949,
          -0.22992616891860962,
          0.06799952685832977,
          -0.031945083290338516,
          -0.09271392226219177,
          -0.22745591402053833,
          -0.2665911614894867,
          -0.020410949364304543,
          -0.14306339621543884,
          -0.11812077462673187,
          0.05602920055389404,
          -0.10176556557416916,
          -0.15066300332546234,
          -0.10587649792432785,
          -0.20374150574207306,
          -0.021225417032837868,
          -0.22355778515338898,
          -0.11068511009216309
        ],
        [
          0.0842348039150238,
          -0.0066289640963077545,
          -0.06810437887907028,
          -0.008770225569605827,
          -0.2491840422153473,
          0.21014715731143951,
          0.0968693196773529,
          -0.20881287753582,
          -0.09859098494052887,
          0.048962902277708054,
          -0.15055567026138306,
          -0.1433873027563095,
          0.04650295898318291,
          -0.236030712723732,
          -0.15872757136821747,
          -0.13913264870643616,
          0.11588767170906067,
          -0.1667620837688446,
          0.13585017621517181,
          -0.06883519887924194,
          -0.014316103421151638,
          0.08808907866477966,
          -0.018276892602443695,
          -0.0691331997513771,
          -0.004598819185048342,
          -0.23543034493923187,
          0.10492096096277237,
          -0.10922899842262268,
          0.04311542958021164,
          -0.055375196039676666,
          -0.09795346111059189,
          -0.08390387147665024
        ],
        [
          0.10728801786899567,
          0.03874346613883972,
          -0.1256931871175766,
          -0.2625281512737274,
          0.040391989052295685,
          0.019094660878181458,
          -0.04351963475346565,
          -0.1515049934387207,
          0.1403243988752365,
          0.06154685094952583,
          -0.20196713507175446,
          0.20404453575611115,
          0.0854012593626976,
          0.22353629767894745,
          -0.00034017517464235425,
          0.19516484439373016,
          0.24539215862751007,
          -0.1679213047027588,
          0.03382014483213425,
          0.25420382618904114,
          0.18580956757068634,
          -0.10240703821182251,
          -0.31621623039245605,
          0.02680106647312641,
          0.013409717939794064,
          -0.029153848066926003,
          0.009944762103259563,
          -0.09466738998889923,
          -0.0820726603269577,
          0.08809693157672882,
          -0.12366854399442673,
          0.12717697024345398
        ],
        [
          -0.011396218091249466,
          -0.11292675137519836,
          0.11771766096353531,
          0.02564522624015808,
          -0.09639670699834824,
          -0.17791859805583954,
          -0.13893404603004456,
          0.15539947152137756,
          0.02015211246907711,
          0.06399349868297577,
          0.15055586397647858,
          -0.2862585186958313,
          -0.0978708490729332,
          -0.029481951147317886,
          -0.26296430826187134,
          -0.08747921139001846,
          -0.0538753904402256,
          -0.12157197296619415,
          0.13617566227912903,
          0.01819399558007717,
          0.006692640483379364,
          -0.3193593919277191,
          -0.09713298082351685,
          0.15840303897857666,
          0.011093128472566605,
          0.0966101661324501,
          0.07103696465492249,
          0.172152578830719,
          -0.05005672574043274,
          0.004999814089387655,
          -0.19016094505786896,
          0.12247767299413681
        ],
        [
          0.09853382408618927,
          -0.029094237834215164,
          -0.020219897851347923,
          -0.14901016652584076,
          0.07161661237478256,
          -0.1934594064950943,
          0.032229386270046234,
          0.11400934308767319,
          -0.271841824054718,
          0.042246993631124496,
          -0.25679269433021545,
          -0.3320350646972656,
          0.018362032249569893,
          0.06351087242364883,
          0.22948192059993744,
          -0.05411992594599724,
          0.19157473742961884,
          -0.044759586453437805,
          -0.01592203602194786,
          0.05923597887158394,
          -0.08860718458890915,
          -0.2454262375831604,
          -0.1407337188720703,
          -0.21799694001674652,
          0.1059703528881073,
          0.029587741941213608,
          -0.28030258417129517,
          -0.10275039076805115,
          0.06381403654813766,
          -0.15245069563388824,
          0.07615133374929428,
          0.1206430047750473
        ],
        [
          -0.15197725594043732,
          -0.03779243305325508,
          -0.1239883229136467,
          0.15900065004825592,
          -0.10524366050958633,
          0.056933239102363586,
          -0.32017767429351807,
          -0.026470618322491646,
          -0.0488746240735054,
          0.048049263656139374,
          0.0911896750330925,
          0.013596653006970882,
          -0.17937752604484558,
          -0.1362922340631485,
          0.17110268771648407,
          -0.1657884567975998,
          0.17188520729541779,
          0.17441947758197784,
          0.07309268414974213,
          0.15136216580867767,
          -0.24498404562473297,
          -0.07788179814815521,
          -0.09044806659221649,
          -0.1832118034362793,
          -0.2773912250995636,
          -0.07523207366466522,
          -0.019817791879177094,
          -0.10936042666435242,
          -0.19189107418060303,
          0.23739102482795715,
          0.02808871679008007,
          -0.12971259653568268
        ],
        [
          0.25061458349227905,
          0.13122014701366425,
          -0.1415514200925827,
          -0.16309042274951935,
          0.17122842371463776,
          0.09644338488578796,
          0.19191111624240875,
          -0.023375969380140305,
          -0.09293416142463684,
          -0.034732088446617126,
          0.05656018853187561,
          -0.048330068588256836,
          0.12207791954278946,
          -0.08760446310043335,
          0.1615099012851715,
          0.18858523666858673,
          -0.025732096284627914,
          0.15941080451011658,
          -0.07097361981868744,
          0.03762952610850334,
          -0.04058114066720009,
          0.016141628846526146,
          -0.14031271636486053,
          -0.19318243861198425,
          -0.12877027690410614,
          -0.16790612041950226,
          0.22973299026489258,
          0.2182052731513977,
          0.18783710896968842,
          0.12707482278347015,
          0.1605159044265747,
          -0.16871386766433716
        ],
        [
          0.0073515260592103004,
          -0.08812960982322693,
          -0.03670726343989372,
          0.2145138680934906,
          -0.14625562727451324,
          0.06532829999923706,
          -0.06152671203017235,
          0.14353324472904205,
          -0.19881176948547363,
          0.2339729219675064,
          -0.18088723719120026,
          0.09256613999605179,
          0.20418062806129456,
          0.23040693998336792,
          0.09537363052368164,
          0.02157474309206009,
          -0.10361313074827194,
          -0.11636320501565933,
          -0.040424373000860214,
          -0.09804098308086395,
          -0.033728424459695816,
          -0.060213152319192886,
          0.14785943925380707,
          0.10483752936124802,
          0.04707534983754158,
          -0.255431205034256,
          0.04009376838803291,
          -0.2291376143693924,
          0.006154998671263456,
          -0.053416475653648376,
          -0.08604746311903,
          -0.025321345776319504
        ],
        [
          0.16941091418266296,
          0.18416114151477814,
          0.08517478406429291,
          -0.04585585370659828,
          0.18294860422611237,
          -0.07463207095861435,
          -0.13995037972927094,
          -0.03921721503138542,
          -0.1580149233341217,
          0.0651671290397644,
          -0.18684090673923492,
          0.10267846286296844,
          -0.14365801215171814,
          0.09410423785448074,
          0.16355836391448975,
          -0.0517503060400486,
          -0.038967255502939224,
          -0.23497577011585236,
          -0.18894055485725403,
          0.006159680895507336,
          -0.23039467632770538,
          0.12430533766746521,
          0.09795791655778885,
          -0.06190437823534012,
          -0.026803405955433846,
          0.10029187798500061,
          -0.18823711574077606,
          -0.1605093628168106,
          -0.17282767593860626,
          -0.1928400695323944,
          -0.12360062450170517,
          -0.20779038965702057
        ],
        [
          0.23258274793624878,
          -0.041360463947057724,
          -0.2747403681278229,
          0.22585661709308624,
          0.08990651369094849,
          -0.018481912091374397,
          -0.15003691613674164,
          -0.1197056844830513,
          0.1782314032316208,
          0.13142962753772736,
          -0.014058127999305725,
          0.156478613615036,
          -0.05727844685316086,
          0.09950173646211624,
          -0.1652168184518814,
          0.2191174030303955,
          0.13864868879318237,
          -0.1993938535451889,
          0.2407943457365036,
          -0.08048832416534424,
          -0.11973467469215393,
          0.21085935831069946,
          0.14117996394634247,
          0.2652091681957245,
          0.05934468284249306,
          -0.01571469195187092,
          -0.0006953825941309333,
          0.0293279979377985,
          -0.08312276005744934,
          0.10460829734802246,
          -0.11474210768938065,
          0.07377641648054123
        ],
        [
          -0.13773612678050995,
          0.011112947016954422,
          -0.11467418074607849,
          -0.08051755279302597,
          0.15083347260951996,
          0.17903000116348267,
          0.035267896950244904,
          -0.013815714046359062,
          0.21547402441501617,
          -0.1827828586101532,
          -0.19408872723579407,
          0.2296239137649536,
          0.24822808802127838,
          -0.1880401372909546,
          -0.0724373534321785,
          0.09628193825483322,
          -0.13633914291858673,
          0.13898958265781403,
          0.031660426408052444,
          0.2377094179391861,
          0.12490688264369965,
          0.028105642646551132,
          0.07441636174917221,
          0.18713383376598358,
          -0.08825862407684326,
          0.14319756627082825,
          -0.21460340917110443,
          -0.17749059200286865,
          -0.1135319396853447,
          0.03240271285176277,
          0.049663640558719635,
          0.180317685008049
        ],
        [
          0.07211020588874817,
          -0.23628318309783936,
          0.06974418461322784,
          -0.019306162372231483,
          0.010941618122160435,
          0.22198587656021118,
          -0.09368757903575897,
          0.04033326357603073,
          -0.03779225796461105,
          -0.1452113687992096,
          0.16969117522239685,
          0.10516449809074402,
          -0.24030545353889465,
          0.2099020779132843,
          0.09195743501186371,
          -0.17682310938835144,
          -0.0294484905898571,
          0.04800359159708023,
          -0.14447200298309326,
          -0.24051806330680847,
          0.22160604596138,
          0.029174303635954857,
          -0.02335960976779461,
          -0.09512058645486832,
          0.04245484247803688,
          -0.21191829442977905,
          0.1443580687046051,
          0.04011394828557968,
          0.045381125062704086,
          0.059658732265233994,
          -0.015783464536070824,
          0.011934158392250538
        ],
        [
          0.10854987800121307,
          -0.1278674602508545,
          -0.0683186873793602,
          0.0013446614611893892,
          -0.0859285220503807,
          0.11875724792480469,
          0.1445351094007492,
          -0.22064869105815887,
          -0.045984286814928055,
          0.26169782876968384,
          0.18288296461105347,
          -0.009103493764996529,
          0.1786557137966156,
          0.10001097619533539,
          0.2518104910850525,
          -0.13987533748149872,
          0.13707736134529114,
          -0.16850398480892181,
          0.06497899442911148,
          -0.272980272769928,
          0.0729297548532486,
          -0.05151228979229927,
          0.08281993120908737,
          0.044946301728487015,
          -0.04076132923364639,
          -0.11659082770347595,
          0.1292080581188202,
          0.20991940796375275,
          0.14580929279327393,
          -0.11669408529996872,
          0.07943832874298096,
          -0.07405377924442291
        ],
        [
          -0.024977467954158783,
          -0.0026864586398005486,
          -0.09563709795475006,
          0.15733562409877777,
          -0.0707385316491127,
          0.15462586283683777,
          -0.25510933995246887,
          -0.027501698583364487,
          0.09454934298992157,
          -0.24363593757152557,
          -0.17070844769477844,
          -0.08255607634782791,
          -0.03072168678045273,
          0.08929640054702759,
          -0.2150731384754181,
          -0.00941287912428379,
          0.12406658381223679,
          -0.1545017510652542,
          0.11877840012311935,
          0.1701209992170334,
          -0.020155683159828186,
          0.11782528460025787,
          0.1921120584011078,
          0.03187737241387367,
          -0.07399222999811172,
          -0.08151953667402267,
          0.09113363921642303,
          0.06694164872169495,
          -0.044166527688503265,
          0.07858766615390778,
          -0.08018384128808975,
          0.13329069316387177
        ],
        [
          0.11639267951250076,
          -0.05834902450442314,
          -0.02019135281443596,
          -0.2158888727426529,
          0.001567099941894412,
          0.17055723071098328,
          -0.0011052403133362532,
          -0.023223957046866417,
          0.12843337655067444,
          -0.0182749405503273,
          -0.1516856849193573,
          -0.28302088379859924,
          -0.00809148047119379,
          -0.294400691986084,
          0.211542010307312,
          -0.18131868541240692,
          -0.06577374786138535,
          -0.04761973395943642,
          0.13431665301322937,
          0.18132080137729645,
          -0.002030412433668971,
          0.13511712849140167,
          -0.09471006691455841,
          -0.07235588133335114,
          -0.0568314753472805,
          -0.09537141770124435,
          0.17816147208213806,
          -0.15990625321865082,
          -0.013510829769074917,
          -0.2707412838935852,
          0.019845452159643173,
          -0.12885650992393494
        ],
        [
          0.10760513693094254,
          0.2133464515209198,
          0.046667441725730896,
          0.02160698175430298,
          -0.17012156546115875,
          0.05939872935414314,
          -0.1877666711807251,
          -0.18664145469665527,
          0.007443818263709545,
          0.1861262321472168,
          0.0707692950963974,
          -0.18135322630405426,
          0.07212824374437332,
          0.05951777100563049,
          0.11933869123458862,
          -0.06516031175851822,
          -0.01957421563565731,
          -0.1357942670583725,
          0.2154676467180252,
          -0.15839838981628418,
          0.2283770740032196,
          0.18770883977413177,
          -0.11541569232940674,
          0.27337750792503357,
          -0.17701104283332825,
          0.032189447432756424,
          -0.12771648168563843,
          0.26601240038871765,
          0.23437583446502686,
          -0.17337700724601746,
          -0.2636343538761139,
          0.044084809720516205
        ],
        [
          -0.23106567561626434,
          -0.3632785677909851,
          0.218828484416008,
          0.13111171126365662,
          -0.1494031399488449,
          -0.08164802193641663,
          0.0023859720677137375,
          0.01236739382147789,
          -0.2005826085805893,
          0.052437979727983475,
          0.10989495366811752,
          0.2112712860107422,
          0.014324123971164227,
          0.03901323676109314,
          0.19917389750480652,
          0.12183783203363419,
          0.1020059660077095,
          0.0988326147198677,
          -0.05653797835111618,
          0.2438667118549347,
          0.21506378054618835,
          -0.04258342832326889,
          0.1983458250761032,
          -0.010245116427540779,
          0.16667936742305756,
          -0.01927233301103115,
          -0.05479879677295685,
          0.11679887026548386,
          -0.016384307295084,
          0.1191047877073288,
          -0.018982568755745888,
          0.02618890069425106
        ],
        [
          0.11823853850364685,
          0.009706237353384495,
          -0.05339932069182396,
          -0.02191467024385929,
          -0.07259020209312439,
          -0.05788593739271164,
          -0.20067544281482697,
          0.22367939352989197,
          0.2628920078277588,
          -0.0672748014330864,
          0.004029007162898779,
          0.24086637794971466,
          0.1764904260635376,
          -0.05665788799524307,
          0.005245220381766558,
          0.14313989877700806,
          0.22687752544879913,
          0.03915157914161682,
          0.1536969095468521,
          -0.12228605151176453,
          -0.13391132652759552,
          -0.14082707464694977,
          0.15440382063388824,
          0.059870991855859756,
          -0.13236670196056366,
          -0.2833074927330017,
          0.033168043941259384,
          -0.13805486261844635,
          -0.14333201944828033,
          0.044189341366291046,
          -0.17481453716754913,
          -0.23046046495437622
        ],
        [
          0.10945645719766617,
          0.0010407125810161233,
          0.0020646145567297935,
          -0.22810527682304382,
          -0.052449941635131836,
          -0.054244719445705414,
          0.14604753255844116,
          0.04922459274530411,
          -0.07742905616760254,
          0.19884991645812988,
          -0.14907562732696533,
          -0.04527096450328827,
          0.24621835350990295,
          -0.1289985626935959,
          -0.09794722497463226,
          -0.1615675538778305,
          -0.14409209787845612,
          0.22755658626556396,
          0.11996793001890182,
          -0.013480888679623604,
          0.1484413743019104,
          -0.33519697189331055,
          -0.04746114835143089,
          0.0368863083422184,
          0.2226671576499939,
          0.151851624250412,
          0.2242642492055893,
          -0.19795110821723938,
          -0.043737418949604034,
          -0.14525341987609863,
          0.1497759073972702,
          -0.13719582557678223
        ],
        [
          0.12018252909183502,
          0.16744035482406616,
          0.06444273889064789,
          0.19164897501468658,
          0.011445529758930206,
          0.13281609117984772,
          0.21498891711235046,
          0.29016607999801636,
          -0.05460996553301811,
          -0.18320505321025848,
          0.016639288514852524,
          -0.17502568662166595,
          -0.18695810437202454,
          0.2052321583032608,
          -0.1710345596075058,
          0.016818655654788017,
          -0.2120528221130371,
          0.0113792410120368,
          0.12745001912117004,
          -0.18796543776988983,
          0.10346177965402603,
          0.07862471044063568,
          -0.06351055204868317,
          -0.23779821395874023,
          -0.03121824935078621,
          0.055404532700777054,
          0.04190685600042343,
          0.27373161911964417,
          -0.040433164685964584,
          0.04837259650230408,
          -0.17899562418460846,
          -0.08686995506286621
        ],
        [
          -0.16641616821289062,
          -0.23488427698612213,
          -0.1181446984410286,
          -0.0769713819026947,
          0.19882822036743164,
          0.052606724202632904,
          -0.023927774280309677,
          -0.22986561059951782,
          -0.23187699913978577,
          0.2152961939573288,
          0.02788720838725567,
          -0.17082178592681885,
          0.12613265216350555,
          -0.18726684153079987,
          -0.0013898307224735618,
          -0.03359013795852661,
          0.12284451723098755,
          -0.25195765495300293,
          0.147586390376091,
          0.12845449149608612,
          -0.18189679086208344,
          0.12283419817686081,
          -0.10819751024246216,
          0.006380491424351931,
          0.061727073043584824,
          0.04326608404517174,
          0.07222683727741241,
          0.054703205823898315,
          0.019986668601632118,
          -0.17727871239185333,
          0.15414422750473022,
          -0.03932599723339081
        ],
        [
          0.08788108825683594,
          -0.2536962032318115,
          0.13639265298843384,
          -0.1778223067522049,
          -0.05288778245449066,
          0.0668734759092331,
          0.11739111691713333,
          -0.04074385017156601,
          -0.11617673933506012,
          -0.2126404345035553,
          -0.09334065020084381,
          0.10098842531442642,
          -0.0024418155662715435,
          0.19477204978466034,
          -0.028038909658789635,
          -0.25175362825393677,
          -0.14980101585388184,
          -0.15394268929958344,
          0.15752460062503815,
          -0.2684088349342346,
          0.05775339901447296,
          -0.22576294839382172,
          -0.19098667800426483,
          -0.016625327989459038,
          -0.0018995332065969706,
          -0.06232158839702606,
          -0.1386912614107132,
          -0.036114390939474106,
          0.20357917249202728,
          0.23087653517723083,
          0.12498869001865387,
          -0.07933007180690765
        ],
        [
          0.09156543761491776,
          0.056736335158348083,
          -0.09112554788589478,
          0.06774485856294632,
          -0.2654391825199127,
          0.004508183337748051,
          0.14580531418323517,
          -0.12321674078702927,
          0.16946105659008026,
          -0.27941131591796875,
          0.1656801402568817,
          0.054304905235767365,
          -0.07650543004274368,
          -0.01917179673910141,
          0.09159067273139954,
          0.2133018523454666,
          0.015460563823580742,
          0.2429470717906952,
          0.11783141642808914,
          -0.14665810763835907,
          -0.14251668751239777,
          -0.24793076515197754,
          0.08927009254693985,
          0.17839480936527252,
          -0.2756381630897522,
          0.10811872780323029,
          0.2003328800201416,
          0.2662912905216217,
          -0.11136013269424438,
          0.22542572021484375,
          -0.19759882986545563,
          0.16359180212020874
        ],
        [
          0.09830331802368164,
          -0.2178676575422287,
          -0.01674813963472843,
          0.16244038939476013,
          -0.20183151960372925,
          0.11609352380037308,
          0.11219379305839539,
          -0.24922437965869904,
          -0.19494985044002533,
          0.10465715825557709,
          -0.2896690368652344,
          -0.1873854398727417,
          -0.026982303708791733,
          0.22188901901245117,
          0.10250607877969742,
          0.21612174808979034,
          0.08050937205553055,
          -0.1256328970193863,
          -0.13843905925750732,
          0.21580731868743896,
          -0.20508676767349243,
          -0.07393038272857666,
          0.1012311652302742,
          -0.20554523169994354,
          -0.05117592215538025,
          -0.10120498389005661,
          -0.073802649974823,
          -0.22463031113147736,
          -0.14544902741909027,
          0.16238436102867126,
          0.15566782653331757,
          -0.14136485755443573
        ],
        [
          0.18641208112239838,
          -0.14026261866092682,
          -0.26507359743118286,
          -0.12137332558631897,
          -0.28881311416625977,
          -0.007725088857114315,
          0.23528829216957092,
          -0.20244447886943817,
          0.047863446176052094,
          -0.015197550877928734,
          0.03943629190325737,
          -0.14279329776763916,
          0.1533113420009613,
          0.02342820167541504,
          0.11475846916437149,
          0.1791144609451294,
          -0.012101627886295319,
          -0.031418342143297195,
          -0.064391128718853,
          -0.1370905637741089,
          -0.16331103444099426,
          -0.051493048667907715,
          -0.10405007004737854,
          0.023382874205708504,
          0.26121991872787476,
          -0.2231798619031906,
          0.07644517719745636,
          -0.011726150289177895,
          -0.1290438324213028,
          -0.03410299867391586,
          0.25836560130119324,
          0.1600094437599182
        ],
        [
          0.1684844046831131,
          0.08722145855426788,
          0.034949757158756256,
          -0.02620702236890793,
          0.19513913989067078,
          -0.15844011306762695,
          0.11252765357494354,
          -0.057180654257535934,
          0.17709550261497498,
          0.04290282726287842,
          -0.1757412850856781,
          -0.07247917354106903,
          0.16971081495285034,
          -0.10743144899606705,
          -0.1285652369260788,
          -0.09481962025165558,
          0.020383626222610474,
          -0.06707850843667984,
          0.24417388439178467,
          0.04176901653409004,
          -0.027250176295638084,
          0.036690693348646164,
          -0.14585919678211212,
          -0.11269751191139221,
          -0.1192040741443634,
          0.00210564024746418,
          0.09933225810527802,
          -0.16006433963775635,
          -0.12165933102369308,
          0.14482736587524414,
          0.10398916155099869,
          0.055169012397527695
        ],
        [
          -0.10438016057014465,
          0.1621517390012741,
          0.09143858402967453,
          0.045859284698963165,
          -0.05428466573357582,
          0.16250889003276825,
          0.08721527457237244,
          0.1140008345246315,
          -0.19804243743419647,
          0.22129380702972412,
          -0.017613360658288002,
          -0.004353392869234085,
          0.22556041181087494,
          0.029907695949077606,
          -0.08316349983215332,
          0.012999835424125195,
          0.0710965171456337,
          -0.049090322107076645,
          0.22265447676181793,
          0.0023401835933327675,
          0.08998566120862961,
          0.05028265714645386,
          0.0938582792878151,
          0.03802616521716118,
          -0.2249080091714859,
          -0.04406622424721718,
          0.10614409297704697,
          -0.014270064420998096,
          -0.05474211275577545,
          0.1325499713420868,
          0.1911712884902954,
          -0.008594613522291183
        ],
        [
          -0.2062503695487976,
          -0.03235132247209549,
          -0.08131996542215347,
          0.1365368813276291,
          0.09735657274723053,
          0.008387312293052673,
          0.02450529672205448,
          0.1979731321334839,
          -0.0863511711359024,
          0.039681196212768555,
          0.08694154024124146,
          0.042399175465106964,
          0.056310247629880905,
          0.027060730382800102,
          -0.22992365062236786,
          -0.10889316350221634,
          0.06887289881706238,
          -0.0006324329297058284,
          0.18982650339603424,
          0.16046781837940216,
          -0.10188829153776169,
          -0.029760664328932762,
          0.21052585542201996,
          -0.3252008855342865,
          0.20332732796669006,
          -0.29860857129096985,
          -0.05278842896223068,
          0.03654598072171211,
          -0.2972959876060486,
          -0.09099419414997101,
          0.2003374695777893,
          0.07466402649879456
        ],
        [
          0.1498153805732727,
          0.21031871438026428,
          0.23300588130950928,
          0.13159042596817017,
          0.18038760125637054,
          0.06627142429351807,
          -0.10687616467475891,
          0.1789354532957077,
          -0.09975935518741608,
          -0.013917749747633934,
          0.14417600631713867,
          -0.2306032031774521,
          0.17217665910720825,
          0.02408030815422535,
          -0.0734584778547287,
          0.21233020722866058,
          0.26938652992248535,
          -0.22804516553878784,
          -0.18967460095882416,
          0.017227040603756905,
          -0.08284366875886917,
          -0.13843971490859985,
          -0.039686527103185654,
          -0.1325671523809433,
          0.007476260419934988,
          0.20419031381607056,
          0.09696200489997864,
          -0.05330205708742142,
          -0.1641351878643036,
          -0.00028038895106874406,
          -0.028801750391721725,
          0.21158017218112946
        ],
        [
          -0.05606789514422417,
          0.086214579641819,
          0.16086073219776154,
          0.03958706930279732,
          0.12704309821128845,
          0.06296518445014954,
          0.11188827455043793,
          -0.15594416856765747,
          -0.09618008881807327,
          -0.09462688863277435,
          0.27509793639183044,
          -0.07450391352176666,
          -0.003983339294791222,
          -0.0017564402660354972,
          -0.007835708558559418,
          -0.19930049777030945,
          0.008347933180630207,
          -0.11108026653528214,
          0.03203325718641281,
          0.09193142503499985,
          0.21177402138710022,
          0.016112791374325752,
          0.019870292395353317,
          0.08531906455755234,
          -0.1603185087442398,
          0.026865137740969658,
          -0.011804336681962013,
          -0.11223537474870682,
          0.07093155384063721,
          -0.07311876118183136,
          0.2456776201725006,
          0.30696991086006165
        ],
        [
          -0.23116450011730194,
          0.030011512339115143,
          0.0785861611366272,
          0.21816955506801605,
          -0.04929706081748009,
          0.01048668660223484,
          -0.14779877662658691,
          0.09457871317863464,
          -0.16637450456619263,
          -0.35358089208602905,
          -0.12089482694864273,
          0.12460635602474213,
          0.15291737020015717,
          -0.0363159142434597,
          -0.025893492624163628,
          0.17235611379146576,
          0.07564295083284378,
          -0.06413421779870987,
          -0.22467324137687683,
          0.13357499241828918,
          0.16081467270851135,
          -0.27834954857826233,
          0.11614622175693512,
          0.28425028920173645,
          0.03655492514371872,
          0.21730047464370728,
          -0.0986710637807846,
          0.2269742786884308,
          -0.12833648920059204,
          0.01902284286916256,
          -0.07019178569316864,
          0.1797598898410797
        ],
        [
          0.13839221000671387,
          0.012023239396512508,
          0.19679571688175201,
          -0.010806059464812279,
          0.12649333477020264,
          0.008738652803003788,
          -0.24419933557510376,
          -0.0048946235328912735,
          0.04673410952091217,
          0.0502966046333313,
          -0.16571399569511414,
          0.10834227502346039,
          -0.27709779143333435,
          -0.0641474574804306,
          -0.06894690543413162,
          -0.009941532276570797,
          -0.012751448899507523,
          0.012181943282485008,
          -0.2545301020145416,
          -0.16622105240821838,
          0.09413858503103256,
          -0.3073207437992096,
          -0.2031402438879013,
          0.11856216192245483,
          -0.013795587234199047,
          0.03285537660121918,
          0.014762047678232193,
          -0.11977546662092209,
          -0.22193551063537598,
          0.09734560549259186,
          -0.049348797649145126,
          0.15168258547782898
        ],
        [
          -0.07169457525014877,
          0.20862941443920135,
